digraph Tree {
node [shape=box, style="filled", color="black", fontname="helvetica"] ;
edge [fontname="helvetica"] ;
0 [label="OverTime <= 0.5\nentropy = 0.646\nsamples = 1176\nvalue = [982, 194]\nclass = No", fillcolor="#ea9a60"] ;
1 [label="TotalWorkingYears <= 2.5\nentropy = 0.499\nsamples = 838\nvalue = [746, 92]\nclass = No", fillcolor="#e89151"] ;
0 -> 1 [labeldistance=2.5, labelangle=45, headlabel="True"] ;
2 [label="HourlyRate <= 55.5\nentropy = 0.935\nsamples = 74\nvalue = [48, 26]\nclass = No", fillcolor="#f3c5a4"] ;
1 -> 2 ;
3 [label="EnvironmentSatisfaction <= 3.5\nentropy = 0.975\nsamples = 27\nvalue = [11, 16]\nclass = Yes", fillcolor="#c1e0f7"] ;
2 -> 3 ;
4 [label="entropy = 0.863\nsamples = 21\nvalue = [6, 15]\nclass = Yes", fillcolor="#88c4ef"] ;
3 -> 4 ;
5 [label="entropy = 0.65\nsamples = 6\nvalue = [5, 1]\nclass = No", fillcolor="#ea9a61"] ;
3 -> 5 ;
6 [label="MaritalStatus <= 0.5\nentropy = 0.747\nsamples = 47\nvalue = [37, 10]\nclass = No", fillcolor="#eca36f"] ;
2 -> 6 ;
7 [label="entropy = 0.0\nsamples = 10\nvalue = [10, 0]\nclass = No", fillcolor="#e58139"] ;
6 -> 7 ;
8 [label="entropy = 0.842\nsamples = 37\nvalue = [27, 10]\nclass = No", fillcolor="#efb082"] ;
6 -> 8 ;
9 [label="NumCompaniesWorked <= 4.5\nentropy = 0.424\nsamples = 764\nvalue = [698, 66]\nclass = No", fillcolor="#e78d4c"] ;
1 -> 9 ;
10 [label="WorkLifeBalance <= 1.5\nentropy = 0.342\nsamples = 580\nvalue = [543, 37]\nclass = No", fillcolor="#e78a46"] ;
9 -> 10 ;
11 [label="entropy = 0.795\nsamples = 25\nvalue = [19, 6]\nclass = No", fillcolor="#eda978"] ;
10 -> 11 ;
12 [label="entropy = 0.311\nsamples = 555\nvalue = [524, 31]\nclass = No", fillcolor="#e78845"] ;
10 -> 12 ;
13 [label="Age <= 37.5\nentropy = 0.629\nsamples = 184\nvalue = [155, 29]\nclass = No", fillcolor="#ea995e"] ;
9 -> 13 ;
14 [label="entropy = 0.824\nsamples = 89\nvalue = [66.0, 23.0]\nclass = No", fillcolor="#eead7e"] ;
13 -> 14 ;
15 [label="entropy = 0.34\nsamples = 95\nvalue = [89, 6]\nclass = No", fillcolor="#e78946"] ;
13 -> 15 ;
16 [label="MonthlyIncome <= 2475.0\nentropy = 0.883\nsamples = 338\nvalue = [236, 102]\nclass = No", fillcolor="#f0b78f"] ;
0 -> 16 [labeldistance=2.5, labelangle=-45, headlabel="False"] ;
17 [label="DailyRate <= 1002.0\nentropy = 0.881\nsamples = 60\nvalue = [18, 42]\nclass = Yes", fillcolor="#8ec7f0"] ;
16 -> 17 ;
18 [label="Age <= 36.0\nentropy = 0.494\nsamples = 37\nvalue = [4, 33]\nclass = Yes", fillcolor="#51a9e8"] ;
17 -> 18 ;
19 [label="entropy = 0.211\nsamples = 30\nvalue = [1, 29]\nclass = Yes", fillcolor="#40a0e6"] ;
18 -> 19 ;
20 [label="entropy = 0.985\nsamples = 7\nvalue = [3, 4]\nclass = Yes", fillcolor="#cee6f8"] ;
18 -> 20 ;
21 [label="YearsInCurrentRole <= 2.5\nentropy = 0.966\nsamples = 23\nvalue = [14, 9]\nclass = No", fillcolor="#f6d2b8"] ;
17 -> 21 ;
22 [label="entropy = 0.94\nsamples = 14\nvalue = [5, 9]\nclass = Yes", fillcolor="#a7d3f3"] ;
21 -> 22 ;
23 [label="entropy = 0.0\nsamples = 9\nvalue = [9, 0]\nclass = No", fillcolor="#e58139"] ;
21 -> 23 ;
24 [label="StockOptionLevel <= 0.5\nentropy = 0.752\nsamples = 278\nvalue = [218, 60]\nclass = No", fillcolor="#eca46f"] ;
16 -> 24 ;
25 [label="JobRole <= 6.5\nentropy = 0.944\nsamples = 108\nvalue = [69, 39]\nclass = No", fillcolor="#f4c8a9"] ;
24 -> 25 ;
26 [label="entropy = 0.811\nsamples = 72\nvalue = [54, 18]\nclass = No", fillcolor="#eeab7b"] ;
25 -> 26 ;
27 [label="entropy = 0.98\nsamples = 36\nvalue = [15, 21]\nclass = Yes", fillcolor="#c6e3f8"] ;
25 -> 27 ;
28 [label="YearsInCurrentRole <= 7.5\nentropy = 0.539\nsamples = 170\nvalue = [149, 21]\nclass = No", fillcolor="#e99355"] ;
24 -> 28 ;
29 [label="entropy = 0.65\nsamples = 126\nvalue = [105, 21]\nclass = No", fillcolor="#ea9a61"] ;
28 -> 29 ;
30 [label="entropy = 0.0\nsamples = 44\nvalue = [44, 0]\nclass = No", fillcolor="#e58139"] ;
28 -> 30 ;
}